mean	sigma
-0.032059578891434945	0.009100945568874398
-0.06522114547199218	0.008566525863728731
0.02354069258953626	0.011792549537618262
0.010307176390161595	0.008181256634942536
-0.1626282579061042	0.02002423180461588
0.19890067761625824	0.017945827304698757
0.8929313769299935	0.01881096819079127
-0.09221846550297008	0.01908432732382521
1.7224542370518316	0.032786924651354604
-0.07201009492129885	0.010055302713903624
0.23231329931381162	0.013049314089801131
0.19691967890696238	0.01399607194084271
0.8975891597511263	0.013436525307000404
0.08719630143541975	0.011960180736179982
0.679855373808497	0.02613951612469055
2.100221672627235	0.018443274347534115
0.034341136931556826	0.026762078763790793
0.14233037838112764	0.008445621173047885
0.04283798843461334	0.01433587133431868
-0.17619246593719104	0.008537875882222034
-0.10820804644531777	0.00821401945026074
-0.35978136083010154	0.04738069807675167
-0.12224526131548226	0.012391653455494096
-0.024978625142434582	0.012372003109142639
0.03691658291629076	0.03763155064281566
-0.028379538322516877	0.00825144163122537
0.05336714000691066	0.017334297347509978
-0.052126501666033824	0.007943313006834167
-0.000175332582851193	0.01608532163098416
0.04406529224739684	0.013310484581342073
-0.09214440009545885	0.018950462886113423
0.39226552851988145	0.02204115089836888
0.011401439610126064	0.011561930309931572
0.4392322180711866	0.011585601540329124
1.776539334817079	0.05566397584463871
0.5011983666342432	0.01929570539899603
-0.41135563614811055	0.013685974994042649
0.0012925180983472367	0.04606957656593302
-0.03683373820095371	0.011583521397666148
-0.21264340258973727	0.02399185953980736
0.051182337568276136	0.010415235951603116
-0.13857691194554542	0.012840712522028857
-0.04392650864767347	0.008156395075925624
-0.06412197146592988	0.011253925127057557
1.3831717526641045	0.01791194470561844
0.14271235751513595	0.007942011447154777
0.10943513364899543	0.030710758428239872
1.0171346387261604	0.02422951566471652
-0.2729847879819859	0.011240514902124448
0.4622217611585682	0.008897975457162555
0.3101362502753629	0.015466908011117796
-0.10843503046971785	0.011093482916042001
0.10881936354744753	0.01097666930690801
-0.036099282509600095	0.010387946838601699
0.1846295161339951	0.011268313750466753
0.021903335197345476	0.01062316043605288
